100 10
0 0.015419325 -0.014302501 0.006444467 0.02369172 0.024274299 -0.015778296 -0.008580739 0.003907716 -0.014758614 -0.009437469
1 -0.0062788967 -0.016177125 0.007546203 -0.0070105195 0.013031131 0.015707666 -0.0044138245 -0.0068994462 0.0006776042 -0.0205503
2 0.005583953 -0.023401553 0.014136793 0.0065416973 -0.010121715 0.024795188 -0.018559894 -0.020451125 0.0024575647 -0.0017060898
3 0.020483376 0.023802923 -0.005553359 -0.005233705 -0.0045072585 -0.0055622812 0.0029754303 -0.01985927 0.022018949 -0.01225496
4 0.009679498 -0.018209273 0.0016420335 -0.020314526 -0.021878112 -0.0012314264 0.022026682 -0.023803705 0.00231326 -0.0029961374
5 0.0026623867 0.022328304 -0.021131491 0.021864647 -0.01106641 -0.024796685 -0.005427981 0.02157641 -0.0021368228 0.018918576
6 -0.02029865 0.01889257 -0.019570604 -0.012648741 0.007555997 0.004782621 0.019654052 0.023342645 0.0237024 -0.012658471
7 0.024813699 -0.009064859 -0.016674682 0.022385033 -0.007400403 -0.018830221 -0.007777687 0.0013619717 0.00065789185 -0.010819075
8 -0.005142916 -0.007209014 0.014029762 0.009676168 -0.002412865 -0.009127349 0.018546076 0.010414494 0.005545642 0.0037431084
9 -0.023890827 0.02413443 0.007782588 -0.01803333 0.018797772 -0.012345359 -0.023449892 0.02268281 0.011332782 0.00040413812
10 -0.015591643 0.00076005794 0.016078653 -0.010523197 -0.006689977 0.020372735 -0.011181131 0.009052189 0.016017554 -0.003032107
11 0.021757806 0.014729658 0.000727769 -0.021448508 0.011545109 0.014509404 -0.011099431 -0.01566321 0.023751924 0.017882397
12 0.024670718 -0.018626532 0.0045786016 0.012611138 0.007459039 -0.016689729 -0.01563915 0.002649814 0.00075638667 0.0045048892
13 -0.0058458745 -0.020335397 -0.0012703538 0.0066700224 -0.017551422 -0.022444898 -0.0069989506 0.009571413 -0.015526116 -0.013925582
14 0.02296633 0.008494047 -0.007155787 -0.018837502 0.012512213 -0.024671221 -0.006016299 0.023597302 -0.003587868 0.013463823
15 -0.014750815 0.012629604 0.016593 0.01982546 -0.008963708 0.008576626 0.02474179 0.0044248793 0.00553016 0.0095180515
16 -0.019925516 -0.0011733118 0.010647031 0.002289325 -0.01912347 -0.00046303868 -0.019303337 0.003560638 0.009824576 0.009529842
17 -0.021772845 -0.018332332 -0.005152777 0.014787348 -0.016004357 0.012906356 -0.0131236315 -0.0045214146 -0.015773486 0.008699438
18 0.01343129 0.0087853875 -0.0056817885 0.012006758 0.007237492 0.022238942 -0.010884088 -0.00902004 0.019141035 -0.017473783
19 0.0051949713 -0.002432743 0.017369317 -0.018368145 -0.008609453 -0.0010048598 -0.009284649 0.014046716 0.005412508 -0.012431437
20 -0.023166278 -0.023280302 -0.022008553 -0.017172765 -0.012664414 0.0072119925 -0.023437161 0.009297596 -0.009134376 0.021542607
21 0.002253348 0.00924162 -0.0020882003 -0.0031742845 -0.010883549 0.022632552 -0.0014759507 -0.013957611 0.0030548666 0.023168026
22 -0.0038043465 0.0037103035 -0.023953041 -0.007864445 0.0041785836 0.02111256 -0.017008428 -0.008870253 -0.022156715 0.020713607
23 -0.024710387 0.014548434 0.017981084 -0.0037000831 0.018527439 0.0053022113 0.019134162 -0.017735928 -0.009223307 0.0021185968
24 0.021669088 0.018593913 0.020867357 -0.00853988 0.015287602 -0.0061506126 0.0078098197 -0.023193622 0.02160964 -0.01591285
25 0.015646147 0.00053331815 -0.010022134 0.0009950288 0.0018403418 -0.01589958 -0.013269645 -0.01615017 -0.0022620596 -0.011148608
26 -0.014351839 0.022832202 -0.00067814626 0.018226268 -0.013376134 0.013427364 -0.016844139 0.0010071006 -0.0069761034 0.023248525
27 -0.01765581 -0.00057449006 -0.011391664 0.0038756076 -0.0007770099 0.01066578 -0.006531175 -0.02029623 -0.022968618 -0.004399579
28 -0.009745061 -0.012089163 -0.00627614 0.0025235154 0.008806208 -0.0036224015 0.006671874 0.0006494224 0.0034683645 0.004315749
29 -0.009657058 0.0021204092 0.0059259776 -0.014723802 0.013143482 -0.004042426 0.0022272728 0.011227427 0.021495776 0.019653557
30 -0.016420972 -0.02045315 0.021555291 -0.018599978 0.0025451034 0.019163245 -0.0043217503 0.021512846 -0.006152928 0.0037409756
31 0.016524145 -0.024844293 -0.01664404 0.0014832411 -0.023427699 -0.010183168 0.0076045636 0.0066934433 -0.02071988 -0.020320171
32 -0.008196577 0.015930789 0.0053530782 -0.022368154 0.020850936 -0.020485431 -0.0024891738 -0.016287416 0.022732863 -0.0052378476
33 -0.0038655251 -0.018629968 -0.023745334 -0.016459055 0.011458991 0.0164646 0.013521677 0.01878134 -0.021131832 -0.008792732
34 -0.02266292 0.021333376 0.01869108 -0.010618514 0.006065402 0.0048675574 0.0077097993 -0.0018725358 -0.022399837 0.0073001403
35 0.008799555 0.020239996 0.006864326 -0.023786878 -0.013660398 0.008299479 0.020702852 0.022604773 0.024863044 0.012481773
36 -0.005007848 -0.023670727 -0.011041856 0.0036084596 0.0014970265 0.0040952414 0.010994801 -0.020925188 0.011805994 -0.00379383
37 0.009811027 0.010433303 0.008103671 -0.01911107 -0.01210756 0.0075728763 -0.003900215 0.019592216 0.019092979 -0.02393556
38 -0.008781323 -0.0009611435 0.016462492 0.016895177 0.016431836 -0.023875797 -0.007873502 -0.011111528 -0.0063973926 0.0087020565
39 0.011320246 -0.020912806 0.0026550032 0.0020436905 0.023223037 -0.005254576 -0.0077873375 -0.008355003 0.010136502 -0.00031156465
40 0.010640906 -0.012174479 0.0055367984 -0.012762028 -0.004137162 -0.0050532855 0.024428988 0.01280163 -0.016088735 -0.0009648949
41 0.019468164 -0.017052919 0.010091828 0.021078462 -0.019983366 0.024685493 -0.007995641 0.005555799 0.0086920615 0.007270219
42 0.010368193 -0.018290704 -0.017605338 -0.016809441 0.008066492 0.0054035243 -0.013718754 0.0050994065 -0.00030772947 0.009010861
43 0.020753147 -0.00017783046 0.013909539 0.011339767 -0.022652993 -0.015810039 0.0008609444 0.017544566 0.013115143 -0.013012558
44 0.012519693 0.019501822 -0.00073576905 -0.016656745 0.0055617727 -0.017296603 0.0030892454 -0.015124658 0.018596442 -0.0020066835
45 0.017348887 0.006291257 -0.0019488372 0.0032019373 -0.024795622 0.0040304754 -0.007096868 0.0038446225 -0.003280837 0.0033127312
46 0.00025642477 -0.0041191317 -0.01773397 0.00863524 -0.01681136 0.008346701 -0.0044657085 -0.0042921603 0.024666773 -0.018222895
47 -0.0022476278 0.021260994 -0.0040417016 -0.023740454 0.024657683 -0.010145393 0.01146741 0.003214702 0.0159948 0.017109858
48 -0.006946584 -0.0096141575 -0.012384367 -0.016311098 0.014648246 -0.0016833842 -0.021538073 0.02429579 -0.01592921 -0.003883889
49 -0.00096381083 -0.018011546 0.011582939 -0.015256113 0.0016456302 -0.009461805 -0.0078293625 -0.011204637 -0.005247902 -0.0023271106
50 0.007170966 0.021265822 0.0022570398 0.009479018 0.010458233 -0.008782083 0.01186136 -0.022147372 0.018778702 -0.0014385581
51 -0.02023252 -0.015450942 -0.019702474 0.015105026 -0.013196737 -0.0009984039 0.006554568 -0.019583624 -0.016139612 0.0022076257
52 -0.0068652984 0.004230162 -0.017206496 0.0067612026 -0.003152186 0.016286353 -0.00970681 0.016659902 -0.022925828 -0.006503731
53 0.02482563 -0.0155226765 0.0064873267 -0.01466232 -0.017212298 0.0037906729 -0.024330517 -0.01617413 0.01430632 -0.008635208
54 -0.0024673492 0.0040922463 -0.0077478644 -0.014998609 -0.021213716 0.021322487 -0.015331149 -0.0010020081 -0.017800758 0.010034816
55 -0.0095258 0.002348777 -0.016284283 -0.024974812 0.010440407 0.021289563 -0.016724236 -0.022675792 -0.016553018 0.02199133
56 0.0058380067 -0.005147258 0.013709484 0.007899107 0.0150523875 0.024342598 0.0026162416 0.019626578 0.02339088 0.01781193
57 -0.01543271 0.024480244 -0.009557778 -0.020532975 -0.013515673 0.004180735 -0.0019705705 0.0022323728 -0.008915141 0.01030731
58 -0.00011811592 0.0060179327 -0.004997274 0.010322185 -0.01569577 0.020913238 0.0020490028 -0.005601641 0.004322415 0.017029958
59 -0.00048659742 0.0015229918 -0.019343898 -0.009219702 -0.013403452 0.017510725 0.020703914 0.010783685 -0.0045427773 -0.0027315672
60 0.005952129 -0.013963604 -0.0016892496 0.024337104 -0.0058948044 -0.015934132 0.008783998 0.0034567527 0.018247126 0.017697876
61 -0.015978884 -0.017066851 0.014458405 -0.0066144355 0.021311356 -0.022022936 0.0109096635 0.0071643945 -0.023648351 0.014679315
62 -0.020055125 0.014495274 0.008506017 0.010029545 0.019457323 0.020486394 -0.018196527 0.021127371 -0.004606018 -7.835403e-05
63 -0.0009702146 -0.017793247 -0.0076369103 -0.012548271 -0.0009100195 0.020655977 -0.02094487 -0.0037899073 0.002756456 -0.021080544
64 0.018603874 0.011549795 0.0203276 -0.007756889 -0.023252502 0.011189917 -0.0048164427 0.016400406 -0.015394977 -0.013847611
65 -0.020787114 -0.012201035 0.017334508 -0.018336486 0.016300755 -0.014005286 -0.023902526 -0.005709525 -0.0045057572 0.023383154
66 0.0036436226 0.018355133 0.023301004 0.013536895 -0.017121658 0.0042363945 0.0034409855 -0.024372106 -0.0070659667 0.0033139028
67 0.012861321 -0.017514994 0.01741437 -0.017149994 -0.0008931216 -0.0011610128 -0.023306891 0.014552331 0.012448447 0.019950243
68 -0.0055908915 0.0021340903 0.01514064 -0.005824253 0.00018047728 -0.0085000545 0.008120792 -0.007140834 -0.006497046 -0.024645245
69 0.013313273 0.0245032 -0.021093186 -0.00896376 0.008969272 0.0009050183 -0.0232338 0.00837286 0.014397694 -0.0219411
70 -0.023285946 0.0069403555 -0.016740445 0.0021923836 -0.0010704938 -0.00841165 0.023700709 0.015069241 -0.018617257 0.009370169
71 0.013037907 0.018348461 0.01449742 0.012305634 -0.013877365 -0.020230528 0.0043395553 -0.023497716 0.010634484 -0.009560943
72 -0.0020799283 0.01723888 0.021176683 -0.0114791365 -0.019662168 -0.016402919 -0.0141787 -0.010727808 -0.02171025 0.022161542
73 -0.0120381145 -0.013491697 0.0066245925 0.011764059 0.0067178477 -0.004519183 0.012400387 0.010719387 -0.015447619 -0.016514212
74 0.015125694 0.021984497 -0.008529261 0.02399649 0.0013368223 0.019685933 0.023060242 0.01513006 0.021222914 -0.011949382
75 0.014825238 0.007003689 -0.00361548 0.0036850814 -0.004102219 0.015547873 -0.021452224 -0.007508686 0.0005620755 0.0045522563
76 0.02248626 0.011729693 0.012284366 -0.0167051 -0.018122649 -0.0208043 0.020640211 0.022420356 -0.018780634 -0.0029708203
77 0.010422235 0.0045167916 0.0020194296 0.0071817506 -0.014726552 0.0094801355 0.015598314 0.00503942 0.022855623 -0.011024097
78 0.010714488 0.020482542 -0.013335222 0.0027548075 0.0032677054 -0.02027762 -0.02084978 -0.0018038005 -0.01160906 0.013649048
79 0.018816104 0.011321517 -0.014194098 -0.0014305711 -0.016220793 -0.012581251 -0.015018872 0.024117248 -0.005250508 0.00085732713
80 -0.007988045 -0.0017557293 0.024990188 -0.016804334 0.01320857 0.019969737 -0.003911469 0.017907986 0.008211145 -0.01212382
81 -0.015400633 -0.0013982207 0.008291589 0.022888625 -0.014452606 -0.015011787 -0.010543895 0.0111699905 -0.007887101 0.004540842
82 0.0028599836 -0.016081791 -0.016692106 0.024226265 0.004949698 -0.0009405706 -0.018270615 0.013926921 0.010189952 0.01508267
83 0.008693637 -0.0073026214 0.019673532 0.016588671 0.0045827515 -0.0066614784 0.017158898 0.006006714 0.02073094 -0.02169675
84 -0.0020783301 0.005337108 0.0102940705 0.01598003 0.0065208767 0.001703959 0.0077962745 0.02230187 -0.015897367 0.012326775
85 -0.023912309 -0.019006336 0.020909617 0.017496137 0.022193288 -0.013465241 -0.011607379 -0.009107759 -0.009231504 -0.009946453
86 0.015775753 -0.0059832633 0.0029067341 0.023065107 0.009673161 -0.002998272 -0.022584496 0.022936752 0.0069660563 0.0064842086
87 -0.024762494 0.0063434523 -0.02410545 0.00086564943 0.00992907 -0.021582333 -0.010321361 -0.015217292 -0.0060804486 0.019243153
88 -0.018777773 0.007760456 -0.024206547 0.012892736 -0.021943105 -0.014196909 -0.012158207 0.0074264463 0.02307914 -0.024838993
89 -0.0006049834 0.016918624 0.007767124 -0.016739301 -0.010811701 0.014279125 -0.018944923 -0.0117457425 0.009458067 -0.013324174
90 0.0018011425 -0.012070489 0.013529705 0.01586732 0.0052061416 0.015641032 0.0077145603 -0.0012180116 0.021277646 0.00068873726
91 -0.0055816323 -0.020315388 0.010278182 0.022699656 0.0038671158 -0.00069254264 0.0060401 0.0036671702 -0.011529759 -0.020542031
92 0.010916932 0.02353813 -0.01640908 -0.0022911374 -0.011566755 -0.004209906 0.01403969 -0.004373407 -0.019154176 0.017979229
93 0.008591788 -0.0039760955 -0.010308108 0.016158497 0.006648725 -0.01956158 0.016536431 -0.022452844 0.009431923 0.010606857
94 -0.021875426 -0.009979171 -0.00062183477 -0.021707937 0.010026654 0.017082712 -0.017407712 0.017796433 -0.014077539 0.019541753
95 0.024381502 -0.024195448 -0.0054212753 0.017753975 -0.009749633 -0.021742383 -0.005611997 0.0072634052 0.009740876 -0.018899173
96 0.015523842 -0.007816305 -0.0045693032 0.00951246 -0.02436922 -0.0017687827 0.0046476033 -0.022658793 -0.007887175 -0.007825082
97 0.02367857 -0.021313224 0.0027213097 0.02448033 0.01187733 -0.0015520863 0.021888899 0.019189445 -0.011202499 0.0127507765
98 -0.01616388 -0.0021191537 0.014895109 0.0015630722 -0.013753772 0.0012936741 -0.016820148 0.024684513 0.004679829 0.012985757
99 0.010395976 -0.0011000521 -0.02216345 -0.0027586129 0.023671182 0.0077272225 0.00035607442 0.00425137 0.011730799 0.02388691
